digraph Tree {
node [shape=box, style="filled, rounded", color="black", fontname=helvetica] ;
edge [fontname=helvetica] ;
0 [label=<intubed &le; 1.5<br/>entropy = 0.419<br/>samples = 54568<br/>value = [4637, 49931]<br/>class = icu not needed>, fillcolor="#4ba6e7"] ;
1 [label=<pneumonia &le; 1.5<br/>entropy = 0.999<br/>samples = 5233<br/>value = [2526, 2707]<br/>class = icu not needed>, fillcolor="#f2f8fd"] ;
0 -> 1 [labeldistance=2.5, labelangle=45, headlabel="True"] ;
2 [label=<entropy = 1.0<br/>samples = 4923<br/>value = [2437, 2486]<br/>class = icu not needed>, fillcolor="#fbfdfe"] ;
1 -> 2 ;
3 [label=<entropy = 0.865<br/>samples = 310<br/>value = [89, 221]<br/>class = icu not needed>, fillcolor="#89c4ef"] ;
1 -> 3 ;
4 [label=<contact_other_covid &le; 50.5<br/>entropy = 0.255<br/>samples = 49335<br/>value = [2111, 47224]<br/>class = icu not needed>, fillcolor="#42a1e6"] ;
0 -> 4 [labeldistance=2.5, labelangle=-45, headlabel="False"] ;
5 [label=<age &le; 0.5<br/>entropy = 0.36<br/>samples = 22467<br/>value = [1536, 20931]<br/>class = icu not needed>, fillcolor="#48a4e7"] ;
4 -> 5 ;
6 [label=<entropy = 0.67<br/>samples = 405<br/>value = [71, 334]<br/>class = icu not needed>, fillcolor="#63b2eb"] ;
5 -> 6 ;
7 [label=<pneumonia &le; 1.5<br/>entropy = 0.352<br/>samples = 22062<br/>value = [1465, 20597]<br/>class = icu not needed>, fillcolor="#47a4e7"] ;
5 -> 7 ;
8 [label="(...)", fillcolor="#C0C0C0"] ;
7 -> 8 ;
29 [label="(...)", fillcolor="#C0C0C0"] ;
7 -> 29 ;
32 [label=<pneumonia &le; 1.5<br/>entropy = 0.149<br/>samples = 26868<br/>value = [575, 26293]<br/>class = icu not needed>, fillcolor="#3d9fe6"] ;
4 -> 32 ;
33 [label=<age &le; 0.5<br/>entropy = 0.195<br/>samples = 14984<br/>value = [451, 14533]<br/>class = icu not needed>, fillcolor="#3fa0e6"] ;
32 -> 33 ;
34 [label="(...)", fillcolor="#C0C0C0"] ;
33 -> 34 ;
35 [label="(...)", fillcolor="#C0C0C0"] ;
33 -> 35 ;
68 [label=<age &le; 0.5<br/>entropy = 0.084<br/>samples = 11884<br/>value = [124, 11760]<br/>class = icu not needed>, fillcolor="#3b9ee5"] ;
32 -> 68 ;
69 [label="(...)", fillcolor="#C0C0C0"] ;
68 -> 69 ;
70 [label="(...)", fillcolor="#C0C0C0"] ;
68 -> 70 ;
}